Language model created by QuickLM on Mon Apr 10 11:17:15 EDT 2017
Copyright (c) 1996-2010 Carnegie Mellon University and Alexander I. Rudnicky

The model is in standard ARPA format, designed by Doug Paul while he was at MITRE.

The code that was used to produce this language model is available in Open Source.
Please visit http://www.speech.cs.cmu.edu/tools/ for more information

The (fixed) discount mass is 0.5. The backoffs are computed using the ratio method.
This model based on a corpus of 419 sentences and 307 words

\data\
ngram 1=307
ngram 2=752
ngram 3=775

\1-grams:
-3.5211 3 -0.3009
-0.8989 </s> -0.3010
-0.8989 <s> -0.2269
-3.0440 A -0.2424
-3.5211 ABOUT -0.3006
-3.5211 ADD -0.2424
-3.2201 ADDRESS -0.2421
-3.5211 AI -0.3009
-3.0440 ALAN -0.3006
-3.5211 ALWAYS -0.3008
-2.3750 AMAZON -0.2366
-2.9191 AND -0.3005
-3.5211 APP -0.3009
-3.5211 APPLICATION -0.2424
-2.9191 ARROW -0.2424
-3.5211 ART -0.3009
-3.5211 AUDACITY -0.2424
-3.0440 B -0.2424
-3.0440 BACK -0.2424
-3.5211 BACKGAMMON -0.2424
-3.5211 BACKSPACE -0.2424
-3.5211 BAR -0.2424
-3.5211 BE -0.3009
-3.0440 BEATLES -0.2424
-3.5211 BILLION -0.2424
-3.0440 BIRD -0.2424
-3.0440 BLUES -0.2424
-3.5211 BOX -0.2424
-3.0440 BROWSER -0.2424
-3.5211 BROWSERS -0.2424
-3.2201 BUTTON -0.2995
-3.2201 BY -0.2424
-2.6760 C -0.2424
-3.2201 CALCULATOR -0.2424
-3.5211 CALENDAR -0.2424
-3.5211 CAM -0.2424
-3.5211 CANCEL -0.2424
-2.1062 CAPITAL -0.2884
-3.5211 CAST -0.2424
-3.5211 CENTRE -0.2424
-3.5211 CHECKERS -0.2424
-3.5211 CHESS -0.2424
-3.5211 CHROME -0.2424
-3.5211 CITY -0.2424
-2.7430 CLICK -0.2415
-3.0440 CLOSE -0.2968
-3.5211 CO -0.3009
-3.5211 CODES -0.2424
-3.5211 COLON -0.2424
-3.5211 COM -0.2424
-3.5211 COMMA -0.2424
-1.9897 CONTROL -0.2270
-3.0440 D -0.2424
-3.5211 DA -0.3009
-3.5211 DATE -0.2424
-3.0440 DEEP -0.3006
-3.2201 DELETE -0.2424
-3.2201 DESKTOP -0.2424
-3.5211 DIALOG -0.2424
-3.5211 DICTATION -0.2424
-3.5211 DIVIDE -0.3008
-3.5211 DO -0.3008
-3.5211 DOCUMENT -0.3000
-3.5211 DOCUMENTS -0.2424
-2.9191 DOT -0.3005
-3.5211 DOUBLE -0.3002
-2.7430 DOWN -0.2418
-3.5211 DOWNLOADS -0.2424
-3.5211 DRAGONS -0.2424
-3.5211 DRAUGHTS -0.2424
-3.5211 DRAW -0.2424
-3.0440 DREAM -0.2424
-2.9191 E -0.2424
-3.2201 EAST -0.2424
-3.5211 EBAY -0.2424
-3.2201 EDIT -0.2999
-3.5211 EDITOR -0.2424
-2.4420 EFF -0.2954
-2.9191 EIGHT -0.2424
-3.5211 EIGHTEEN -0.2424
-3.5211 EIGHTY -0.2424
-3.2201 ELEVEN -0.2424
-3.0440 EMERSON -0.3006
-3.2201 END -0.2423
-3.2201 ENTER -0.2424
-3.5211 EQUALS -0.2424
-3.2201 ESCAPE -0.2424
-3.0440 EVANESCENCE -0.2424
-3.5211 EXIT -0.2424
-2.9191 F -0.2417
-3.5211 FACEBOOK -0.2424
-3.5211 FASTER -0.2424
-3.2201 FIELD -0.2424
-3.5211 FIFTEEN -0.2424
-3.5211 FIFTY -0.2424
-2.7430 FILE -0.2408
-3.5211 FILES -0.2424
-3.5211 FIND -0.3008
-2.9191 FIREFOX -0.2423
-2.9191 FIVE -0.2424
-3.0440 FLOYD -0.2424
-3.5211 FORMAT -0.3000
-3.5211 FORTY -0.2424
-3.2201 FORWARD -0.2424
-2.9191 FOUR -0.2424
-3.5211 FOURTEEN -0.2424
-3.5211 FRACTAL -0.3009
-3.2201 FULL -0.3005
-3.0440 G -0.2424
-3.5211 GALLERY -0.2424
-3.5211 GENERAL -0.2424
-3.5211 GENIE -0.2424
-3.5211 GNU -0.3008
-2.4072 GO -0.2373
-2.9191 GOOGLE -0.2420
-3.0440 H -0.2424
-3.5211 HALF -0.3008
-3.2201 HELP -0.2412
-3.2201 HERE -0.2423
-3.5211 HOLD -0.2424
-3.2201 HOME -0.2424
-3.5211 HUNDRED -0.2424
-3.0440 I -0.2424
-3.2201 IMAGE -0.3008
-3.5211 INSERT -0.3000
-3.0440 J -0.2424
-3.0440 K -0.2424
-3.5211 KEEP -0.3008
-3.5211 KEY -0.2424
-3.5211 KEYBOARD -0.2424
-2.7430 L -0.2414
-3.0440 LAKE -0.3005
-3.5211 LAUNCHER -0.2424
-3.5211 LEAF -0.3008
-2.7430 LEFT -0.2415
-2.1062 LETTER -0.2884
-3.5211 LINE -0.2424
-3.5211 LINKEDIN -0.2424
-3.5211 LINUX -0.2424
-3.2201 LISTENING -0.2424
-3.5211 LOCATION -0.2424
-3.5211 LOWER -0.3005
-3.0440 M -0.2424
-3.5211 MAELSTROM -0.2424
-3.5211 MAIL -0.2424
-3.0440 MANAGER -0.2424
-3.5211 MAP -0.2424
-3.5211 MARK -0.2424
-3.5211 MASTERMIND -0.2424
-3.5211 MAXIMIZE -0.2991
-3.5211 ME -0.3009
-2.6180 MENU -0.2424
-3.0440 MERLYN -0.2424
-3.5211 METTA -0.3005
-3.5211 MIDDLE -0.3002
-3.5211 MILLION -0.2424
-3.5211 MINUS -0.2424
-3.0440 MOODY -0.3006
-2.4797 MOUSE -0.2958
-3.5211 MULTIPLY -0.3008
-2.5211 MUSIC -0.2396
-3.2201 MUTE -0.3008
-3.2201 MY -0.2995
-2.9191 N -0.2424
-3.5211 NAME -0.2424
-3.5211 NET -0.2424
-3.5211 NETFLIX -0.2424
-3.0440 NEW -0.2962
-3.5211 NEWS -0.2424
-2.8222 NEXT -0.2370
-2.9191 NINE -0.2424
-3.5211 NINETEEN -0.2424
-3.5211 NINETY -0.2424
-3.5211 NORMAL -0.3009
-3.2201 NORTH -0.2424
-3.5211 NOTE -0.3008
-2.4797 NUMBER -0.2366
-2.9191 O -0.2424
-3.0440 OF -0.3006
-3.2201 ON -0.3001
-2.9191 ONE -0.2424
-2.3750 OPEN -0.2944
-3.5211 OR -0.3009
-3.5211 ORG -0.2424
-3.2201 ORIGIN -0.2424
-3.5211 OSCILLOSCOPE -0.2424
-3.0440 OZRIC -0.3006
-3.0440 P -0.2424
-3.2201 PAD -0.2424
-2.7430 PAGE -0.2399
-3.2201 PAINT -0.2424
-3.0440 PALMER -0.2424
-3.0440 PARSONS -0.2424
-3.0440 PAUSE -0.2418
-3.5211 PERIOD -0.2424
-3.5211 PICTURES -0.2424
-3.5211 PINBALL -0.2424
-3.0440 PINK -0.3006
-3.5211 PIPE -0.2424
-3.5211 PLACE -0.2991
-2.9191 PLAY -0.2418
-3.5211 PLUS -0.2424
-3.5211 PREFERENCES -0.2424
-2.7430 PRESS -0.2976
-3.5211 PREV -0.2424
-3.0440 PREVIOUS -0.2983
-3.0440 PROG -0.3006
-3.0440 PURPLE -0.2424
-3.5211 PYCHESS -0.2424
-3.5211 PYTHON -0.3009
-3.0440 Q -0.2424
-3.5211 QUESTION -0.3009
-2.6760 QUIT -0.2976
-3.0440 R -0.2424
-3.5211 RAISE -0.3005
-3.0440 RARE -0.3006
-3.5211 RECORD -0.3008
-3.5211 REDDIT -0.2424
-3.5211 REFRESH -0.3002
-3.5211 RESTART -0.3006
-3.2201 RESTORE -0.2970
-3.5211 REVERSI -0.2424
-3.0440 RHYTHMBOX -0.2424
-2.8222 RIGHT -0.2409
-3.0440 ROCK -0.2424
-3.0440 S -0.2424
-3.5211 SAVE -0.3002
-3.2201 SCREEN -0.2423
-3.0440 SEARCH -0.2406
-3.5211 SEMICOLON -0.2424
-3.5211 SETTINGS -0.2424
-2.9191 SEVEN -0.2424
-3.5211 SEVENTEEN -0.2424
-3.5211 SEVENTY -0.2424
-2.7430 SHIFT -0.2971
-2.8222 SHOW -0.2418
-3.5211 SILENCE -0.2424
-2.9191 SIX -0.2424
-3.5211 SIXTEEN -0.2424
-3.5211 SIXTY -0.2424
-3.2201 SIZE -0.2424
-3.5211 SOFTWARE -0.3009
-3.2201 SOUND -0.2424
-3.2201 SOUTH -0.2424
-3.2201 SPACE -0.2423
-3.5211 SPEED -0.2424
-3.5211 SPHINX -0.3009
-2.4072 SPOTIFY -0.2959
-3.5211 STAR -0.2424
-3.5211 STOP -0.3008
-3.5211 SUBTRACT -0.2424
-3.5211 SUPER -0.3009
-3.5211 SUPERTUXKART -0.2424
-3.5211 SWITCH -0.3006
-3.0440 T -0.2424
-2.3170 TAB -0.2369
-3.0440 TANGERINE -0.3006
-3.5211 TELL -0.3009
-3.2201 TEN -0.2424
-3.0440 TENTACLES -0.2424
-3.5211 TERMINAL -0.2424
-3.0440 THE -0.3006
-3.5211 THIRTEEN -0.2424
-3.5211 THIRTY -0.2424
-3.5211 THOUSAND -0.2424
-2.9191 THREE -0.2424
-3.5211 TILDE -0.2424
-3.5211 TIME -0.2424
-3.5211 TIMES -0.2424
-2.7430 TO -0.2975
-3.5211 TOOL -0.2424
-3.2201 TOOLS -0.2412
-3.5211 TOP -0.2424
-3.0440 TRACK -0.2424
-3.5211 TRILLION -0.2424
-3.5211 TUXAR -0.2424
-3.2201 TWELVE -0.2424
-3.5211 TWENTY -0.2424
-3.5211 TWITTER -0.2424
-2.8222 TWO -0.2424
-3.0440 U -0.2424
-3.5211 UCK -0.2424
-3.5211 UN -0.3008
-2.7430 UP -0.2418
-2.6760 V -0.2415
-3.5211 VIDEO -0.2424
-3.5211 VIDEOS -0.2424
-3.5211 VIEW -0.3000
-3.5211 VIEWER -0.2424
-3.5211 VIRTUAL -0.3009
-2.9191 VOLUME -0.2373
-2.9191 W -0.2424
-3.0440 WAR -0.3006
-3.5211 WEATHER -0.2424
-3.5211 WEB -0.3009
-3.5211 WEBSITES -0.2424
-3.2201 WEST -0.2424
-3.5211 WIKIPEDIA -0.2424
-2.3450 WINDOW -0.2375
-3.2201 WORKSPACE -0.2424
-3.0440 WORLDS -0.2424
-2.9191 X -0.2423
-3.0440 Y -0.2424
-3.0440 YES -0.2424
-2.3450 YOUTUBE -0.2363
-3.0440 Z -0.2424
-3.2201 ZERO -0.2424

\2-grams:
-0.3010 3 CODES 0.0000
-2.9232 <s> ADD 0.0000
-2.6222 <s> ADDRESS 0.0000
-2.9232 <s> AI 0.0000
-2.9232 <s> ALWAYS 0.0000
-1.7771 <s> AMAZON -0.0000
-2.9232 <s> APP 0.0000
-2.9232 <s> AUDACITY 0.0000
-2.9232 <s> BACKGAMMON 0.0000
-2.9232 <s> BACKSPACE 0.0000
-2.9232 <s> BILLION 0.0000
-2.9232 <s> CALCULATOR 0.0000
-2.9232 <s> CALENDAR 0.0000
-2.9232 <s> CANCEL 0.0000
-1.5083 <s> CAPITAL -0.0000
-2.9232 <s> CHECKERS 0.0000
-2.9232 <s> CHESS 0.0000
-2.6222 <s> CLICK -0.2218
-2.4461 <s> CLOSE 0.0000
-2.9232 <s> COLON 0.0000
-2.9232 <s> COMMA 0.0000
-1.4181 <s> CONTROL -0.0248
-2.9232 <s> DATE 0.0000
-2.9232 <s> DELETE 0.0000
-2.9232 <s> DICTATION 0.0000
-2.9232 <s> DIVIDE 0.0000
-2.9232 <s> DOCUMENT 0.0000
-2.3212 <s> DOT 0.0000
-2.9232 <s> DOUBLE 0.0000
-2.9232 <s> DOWN -0.2632
-2.9232 <s> DRAUGHTS 0.0000
-2.9232 <s> DRAW 0.0000
-2.9232 <s> EBAY 0.0000
-2.6222 <s> EDIT 0.0000
-1.8441 <s> EFF 0.0000
-2.9232 <s> EIGHT 0.0000
-2.9232 <s> EIGHTEEN 0.0000
-2.9232 <s> EIGHTY 0.0000
-2.9232 <s> ELEVEN 0.0000
-2.9232 <s> END -0.1761
-2.9232 <s> ENTER 0.0000
-2.9232 <s> EQUALS 0.0000
-2.9232 <s> ESCAPE 0.0000
-2.9232 <s> EXIT 0.0000
-2.9232 <s> FACEBOOK 0.0000
-2.9232 <s> FIFTEEN 0.0000
-2.9232 <s> FIFTY 0.0000
-2.9232 <s> FILE -0.2632
-2.9232 <s> FILES 0.0000
-2.9232 <s> FIND 0.0000
-2.9232 <s> FIREFOX -0.2430
-2.9232 <s> FIVE 0.0000
-2.9232 <s> FORMAT 0.0000
-2.9232 <s> FORTY 0.0000
-2.9232 <s> FOUR 0.0000
-2.9232 <s> FOURTEEN 0.0000
-2.9232 <s> FRACTAL 0.0000
-2.6222 <s> FULL 0.0000
-2.9232 <s> GENIE 0.0000
-2.9232 <s> GNU 0.0000
-1.8093 <s> GO -0.0000
-2.4461 <s> GOOGLE -0.0969
-2.9232 <s> HALF 0.0000
-2.6222 <s> HELP 0.0000
-2.9232 <s> HERE -0.1761
-2.9232 <s> HOME 0.0000
-2.9232 <s> HUNDRED 0.0000
-2.6222 <s> IMAGE 0.0000
-2.9232 <s> INSERT 0.0000
-2.9232 <s> KEEP 0.0000
-2.9232 <s> LEAF 0.0000
-2.4461 <s> LEFT -0.1761
-1.5083 <s> LETTER -0.0000
-2.9232 <s> LINKEDIN 0.0000
-2.9232 <s> LOWER 0.0000
-2.9232 <s> MAELSTROM 0.0000
-2.9232 <s> MAP 0.0000
-2.9232 <s> MASTERMIND 0.0000
-2.9232 <s> MAXIMIZE 0.0000
-2.9232 <s> MERLYN 0.0000
-2.9232 <s> METTA 0.0000
-2.9232 <s> MIDDLE 0.0000
-2.9232 <s> MILLION 0.0000
-2.9232 <s> MINUS 0.0000
-1.8819 <s> MOUSE 0.0000
-2.9232 <s> MULTIPLY 0.0000
-2.0781 <s> MUSIC 0.0000
-2.9232 <s> MUTE 0.0000
-2.9232 <s> NAME 0.0000
-2.9232 <s> NETFLIX 0.0000
-2.4461 <s> NEW 0.0000
-2.3212 <s> NEXT -0.0792
-2.9232 <s> NINE 0.0000
-2.9232 <s> NINETEEN 0.0000
-2.9232 <s> NINETY 0.0000
-2.9232 <s> NORMAL 0.0000
-2.9232 <s> NOTE 0.0000
-1.8819 <s> NUMBER 0.0000
-2.9232 <s> ONE 0.0000
-1.7771 <s> OPEN -0.0000
-2.9232 <s> OR 0.0000
-2.9232 <s> OSCILLOSCOPE 0.0000
-2.3212 <s> PAGE -0.1249
-2.9232 <s> PAINT 0.0000
-2.9232 <s> PAUSE -0.2218
-2.9232 <s> PERIOD 0.0000
-2.9232 <s> PINBALL 0.0000
-2.9232 <s> PIPE 0.0000
-2.9232 <s> PLACE 0.0000
-2.6222 <s> PLAY -0.1761
-2.9232 <s> PLUS 0.0000
-2.1451 <s> PRESS 0.0000
-2.4461 <s> PREVIOUS 0.0000
-2.9232 <s> PYCHESS 0.0000
-2.9232 <s> PYTHON 0.0000
-2.9232 <s> QUESTION 0.0000
-2.0781 <s> QUIT -0.0000
-2.9232 <s> RAISE 0.0000
-2.9232 <s> RECORD 0.0000
-2.9232 <s> REDDIT 0.0000
-2.9232 <s> REFRESH 0.0000
-2.9232 <s> RESTART 0.0000
-2.6222 <s> RESTORE 0.0000
-2.9232 <s> REVERSI 0.0000
-2.6222 <s> RIGHT -0.2041
-2.9232 <s> SAVE 0.0000
-2.9232 <s> SCREEN -0.1761
-2.4461 <s> SEARCH 0.0000
-2.9232 <s> SEMICOLON 0.0000
-2.9232 <s> SETTINGS 0.0000
-2.9232 <s> SEVEN 0.0000
-2.9232 <s> SEVENTEEN 0.0000
-2.9232 <s> SEVENTY 0.0000
-2.3212 <s> SHOW -0.0792
-2.9232 <s> SIX 0.0000
-2.9232 <s> SIXTEEN 0.0000
-2.9232 <s> SIXTY 0.0000
-2.9232 <s> SOFTWARE 0.0000
-2.6222 <s> SPACE 0.0000
-2.9232 <s> SPHINX 0.0000
-1.8093 <s> SPOTIFY -0.0000
-2.9232 <s> STAR 0.0000
-2.9232 <s> STOP 0.0000
-2.9232 <s> SUBTRACT 0.0000
-2.9232 <s> SUPER 0.0000
-2.9232 <s> SUPERTUXKART 0.0000
-2.9232 <s> SWITCH 0.0000
-1.9232 <s> TAB 0.0000
-2.9232 <s> TELL 0.0000
-2.9232 <s> TEN 0.0000
-2.9232 <s> TERMINAL 0.0000
-2.9232 <s> THIRTEEN 0.0000
-2.9232 <s> THIRTY 0.0000
-2.9232 <s> THOUSAND 0.0000
-2.9232 <s> THREE 0.0000
-2.9232 <s> TILDE 0.0000
-2.9232 <s> TIME 0.0000
-2.9232 <s> TIMES 0.0000
-2.9232 <s> TOOLS -0.1761
-2.9232 <s> TRILLION 0.0000
-2.9232 <s> TUXAR 0.0000
-2.9232 <s> TWELVE 0.0000
-2.9232 <s> TWENTY 0.0000
-2.9232 <s> TWITTER 0.0000
-2.9232 <s> TWO 0.0000
-2.9232 <s> UN 0.0000
-2.9232 <s> UP -0.2632
-2.9232 <s> VIEW 0.0000
-2.9232 <s> VIRTUAL 0.0000
-2.9232 <s> WEATHER 0.0000
-2.9232 <s> WEB 0.0000
-2.9232 <s> WIKIPEDIA 0.0000
-1.9690 <s> WINDOW -0.1461
-2.9232 <s> X -0.2430
-1.7472 <s> YOUTUBE 0.0000
-2.9232 <s> ZERO 0.0000
-0.3010 A </s> -0.3010
-0.3010 ABOUT MERLYN 0.0000
-0.3010 ADD </s> -0.3010
-0.6021 ADDRESS </s> -0.3010
-0.6021 ADDRESS FIELD 0.0000
-0.3010 AI LINUX 0.0000
-0.3010 ALAN PARSONS 0.0000
-0.3010 ALWAYS ON -0.1761
-1.4472 AMAZON </s> -0.3010
-1.4472 AMAZON ALAN 0.0000
-1.4472 AMAZON BEATLES 0.0000
-1.4472 AMAZON DEEP 0.0000
-1.4472 AMAZON EMERSON 0.0000
-1.4472 AMAZON EVANESCENCE 0.0000
-1.4472 AMAZON MOODY 0.0000
-1.4472 AMAZON OZRIC 0.0000
-1.4472 AMAZON PINK 0.0000
-1.4472 AMAZON PROG 0.0000
-1.4472 AMAZON RARE 0.0000
-1.4472 AMAZON TANGERINE 0.0000
-1.4472 AMAZON WAR 0.0000
-1.4472 AMAZON YES 0.0000
-0.9031 AND HOLD 0.0000
-0.4260 AND PALMER 0.0000
-0.3010 APP LAUNCHER 0.0000
-0.3010 APPLICATION </s> -0.3010
-0.3010 ARROW </s> -0.3010
-0.3010 ART GALLERY 0.0000
-0.3010 AUDACITY </s> -0.3010
-0.3010 B </s> -0.3010
-0.3010 BACK </s> -0.3010
-0.3010 BACKGAMMON </s> -0.3010
-0.3010 BACKSPACE </s> -0.3010
-0.3010 BAR </s> -0.3010
-0.3010 BE DRAGONS 0.0000
-0.3010 BEATLES </s> -0.3010
-0.3010 BILLION </s> -0.3010
-0.3010 BIRD </s> -0.3010
-0.3010 BLUES </s> -0.3010
-0.3010 BOX </s> -0.3010
-0.3010 BROWSER </s> -0.3010
-0.3010 BROWSERS </s> -0.3010
-0.6021 BUTTON DOWN -0.0669
-0.6021 BUTTON UP -0.0669
-0.3010 BY </s> -0.3010
-0.3010 C </s> -0.3010
-0.3010 CALCULATOR </s> -0.3010
-0.3010 CALENDAR </s> -0.3010
-0.3010 CAM </s> -0.3010
-0.3010 CANCEL </s> -0.3010
-1.7160 CAPITAL A 0.0000
-1.7160 CAPITAL B 0.0000
-1.7160 CAPITAL C 0.0000
-1.7160 CAPITAL D 0.0000
-1.7160 CAPITAL E 0.0000
-1.7160 CAPITAL F -0.0969
-1.7160 CAPITAL G 0.0000
-1.7160 CAPITAL H 0.0000
-1.7160 CAPITAL I 0.0000
-1.7160 CAPITAL J 0.0000
-1.7160 CAPITAL K 0.0000
-1.7160 CAPITAL L -0.1761
-1.7160 CAPITAL M 0.0000
-1.7160 CAPITAL N 0.0000
-1.7160 CAPITAL O 0.0000
-1.7160 CAPITAL P 0.0000
-1.7160 CAPITAL Q 0.0000
-1.7160 CAPITAL R 0.0000
-1.7160 CAPITAL S 0.0000
-1.7160 CAPITAL T 0.0000
-1.7160 CAPITAL U 0.0000
-1.7160 CAPITAL V -0.1549
-1.7160 CAPITAL W 0.0000
-1.7160 CAPITAL X -0.0969
-1.7160 CAPITAL Y 0.0000
-1.7160 CAPITAL Z 0.0000
-0.3010 CAST </s> -0.3010
-0.3010 CENTRE </s> -0.3010
-0.3010 CHECKERS </s> -0.3010
-0.3010 CHESS </s> -0.3010
-0.3010 CHROME </s> -0.3010
-0.3010 CITY </s> -0.3010
-0.4771 CLICK </s> -0.3010
-1.0792 CLICK AND -0.2430
-1.0792 CLICK HERE -0.1761
-0.7782 CLOSE DIALOG 0.0000
-0.7782 CLOSE TAB -0.1938
-0.7782 CLOSE WINDOW -0.2041
-0.3010 CO UCK 0.0000
-0.3010 CODES </s> -0.3010
-0.3010 COLON </s> -0.3010
-0.3010 COM </s> -0.3010
-0.3010 COMMA </s> -0.3010
-1.5315 CONTROL </s> -0.3010
-1.8325 CONTROL A 0.0000
-1.8325 CONTROL B 0.0000
-1.8325 CONTROL C 0.0000
-1.8325 CONTROL D 0.0000
-1.8325 CONTROL E 0.0000
-1.8325 CONTROL F -0.0969
-1.8325 CONTROL G 0.0000
-1.8325 CONTROL H 0.0000
-1.8325 CONTROL I 0.0000
-1.8325 CONTROL J 0.0000
-1.8325 CONTROL K 0.0000
-1.8325 CONTROL L -0.1761
-1.8325 CONTROL M 0.0000
-1.8325 CONTROL N 0.0000
-1.8325 CONTROL O 0.0000
-1.8325 CONTROL P 0.0000
-1.8325 CONTROL Q 0.0000
-1.8325 CONTROL R 0.0000
-1.8325 CONTROL S 0.0000
-1.0544 CONTROL SHIFT 0.0000
-1.8325 CONTROL T 0.0000
-1.8325 CONTROL U 0.0000
-1.8325 CONTROL V -0.1549
-1.8325 CONTROL W 0.0000
-1.8325 CONTROL X -0.0969
-1.8325 CONTROL Y 0.0000
-1.8325 CONTROL Z 0.0000
-0.3010 D </s> -0.3010
-0.3010 DA CITY 0.0000
-0.3010 DATE </s> -0.3010
-0.3010 DEEP PURPLE 0.0000
-0.3010 DELETE </s> -0.3010
-0.3010 DESKTOP </s> -0.3010
-0.3010 DIALOG </s> -0.3010
-0.3010 DICTATION </s> -0.3010
-0.3010 DIVIDE BY 0.0000
-0.3010 DO TOOLS -0.1761
-0.3010 DOCUMENT MENU 0.0000
-0.3010 DOCUMENTS </s> -0.3010
-0.9031 DOT CO 0.0000
-0.9031 DOT COM 0.0000
-0.9031 DOT NET 0.0000
-0.9031 DOT ORG 0.0000
-0.3010 DOUBLE CLICK -0.1249
-0.3802 DOWN </s> -0.3010
-1.0792 DOWN ARROW 0.0000
-0.3010 DOWNLOADS </s> -0.3010
-0.3010 DRAGONS </s> -0.3010
-0.3010 DRAUGHTS </s> -0.3010
-0.3010 DRAW </s> -0.3010
-0.3010 DREAM </s> -0.3010
-0.3010 E </s> -0.3010
-0.3010 EAST </s> -0.3010
-0.3010 EBAY </s> -0.3010
-0.6021 EDIT MENU 0.0000
-0.6021 EDIT VIDEO 0.0000
-0.3010 EDITOR </s> -0.3010
-1.3802 EFF EIGHT 0.0000
-1.3802 EFF ELEVEN 0.0000
-1.3802 EFF FIVE 0.0000
-1.3802 EFF FOUR 0.0000
-1.3802 EFF NINE 0.0000
-1.3802 EFF ONE 0.0000
-1.3802 EFF SEVEN 0.0000
-1.3802 EFF SIX 0.0000
-1.3802 EFF TEN 0.0000
-1.3802 EFF THREE 0.0000
-1.3802 EFF TWELVE 0.0000
-1.3802 EFF TWO 0.0000
-0.3010 EIGHT </s> -0.3010
-0.3010 EIGHTEEN </s> -0.3010
-0.3010 EIGHTY </s> -0.3010
-0.3010 ELEVEN </s> -0.3010
-0.3010 EMERSON LAKE 0.0000
-0.6021 END </s> -0.3010
-0.6021 END LINE 0.0000
-0.3010 ENTER </s> -0.3010
-0.3010 EQUALS </s> -0.3010
-0.3010 ESCAPE </s> -0.3010
-0.3010 EVANESCENCE </s> -0.3010
-0.3010 EXIT </s> -0.3010
-0.4260 F </s> -0.3010
-0.9031 F TWO 0.0000
-0.3010 FACEBOOK </s> -0.3010
-0.3010 FASTER </s> -0.3010
-0.3010 FIELD </s> -0.3010
-0.3010 FIFTEEN </s> -0.3010
-0.3010 FIFTY </s> -0.3010
-0.7782 FILE </s> -0.3010
-0.6021 FILE MANAGER 0.0000
-1.0792 FILE MENU 0.0000
-0.3010 FILES </s> -0.3010
-0.3010 FIND ON -0.1761
-0.4260 FIREFOX </s> -0.3010
-0.9031 FIREFOX PREFERENCES 0.0000
-0.3010 FIVE </s> -0.3010
-0.3010 FLOYD </s> -0.3010
-0.3010 FORMAT MENU 0.0000
-0.3010 FORTY </s> -0.3010
-0.3010 FORWARD </s> -0.3010
-0.3010 FOUR </s> -0.3010
-0.3010 FOURTEEN </s> -0.3010
-0.3010 FRACTAL ART 0.0000
-0.6021 FULL SCREEN -0.1761
-0.6021 FULL SIZE 0.0000
-0.3010 G </s> -0.3010
-0.3010 GALLERY </s> -0.3010
-0.3010 GENERAL </s> -0.3010
-0.3010 GENIE </s> -0.3010
-0.3010 GNU PAINT 0.0000
-1.4150 GO </s> -0.3010
-1.4150 GO BACK 0.0000
-1.4150 GO DOWN -0.0669
-1.4150 GO FORWARD 0.0000
-1.4150 GO LEFT -0.1761
-1.4150 GO RIGHT -0.1461
-0.6368 GO TO 0.0000
-1.4150 GO UP -0.0669
-0.9031 GOOGLE </s> -0.3010
-0.9031 GOOGLE CHROME 0.0000
-0.9031 GOOGLE MAIL 0.0000
-0.9031 GOOGLE NEWS 0.0000
-0.3010 H </s> -0.3010
-0.3010 HALF SIZE 0.0000
-0.6021 HELP </s> -0.3010
-0.6021 HELP MENU 0.0000
-0.6021 HERE </s> -0.3010
-0.6021 HERE BE 0.0000
-0.3010 HOLD </s> -0.3010
-0.3010 HOME </s> -0.3010
-0.3010 HUNDRED </s> -0.3010
-0.3010 I </s> -0.3010
-0.6021 IMAGE EDITOR 0.0000
-0.6021 IMAGE VIEWER 0.0000
-0.3010 INSERT MENU 0.0000
-0.3010 J </s> -0.3010
-0.3010 K </s> -0.3010
-0.3010 KEEP LISTENING 0.0000
-0.3010 KEY </s> -0.3010
-0.3010 KEYBOARD </s> -0.3010
-0.6021 L </s> -0.3010
-0.6021 L C 0.0000
-0.3010 LAKE AND -0.0969
-0.3010 LAUNCHER </s> -0.3010
-0.3010 LEAF PAD 0.0000
-0.6021 LEFT </s> -0.3010
-1.0792 LEFT ARROW 0.0000
-0.7782 LEFT BUTTON 0.0000
-1.7160 LETTER A 0.0000
-1.7160 LETTER B 0.0000
-1.7160 LETTER C 0.0000
-1.7160 LETTER D 0.0000
-1.7160 LETTER E 0.0000
-1.7160 LETTER F -0.0969
-1.7160 LETTER G 0.0000
-1.7160 LETTER H 0.0000
-1.7160 LETTER I 0.0000
-1.7160 LETTER J 0.0000
-1.7160 LETTER K 0.0000
-1.7160 LETTER L -0.1761
-1.7160 LETTER M 0.0000
-1.7160 LETTER N 0.0000
-1.7160 LETTER O 0.0000
-1.7160 LETTER P 0.0000
-1.7160 LETTER Q 0.0000
-1.7160 LETTER R 0.0000
-1.7160 LETTER S 0.0000
-1.7160 LETTER T 0.0000
-1.7160 LETTER U 0.0000
-1.7160 LETTER V -0.1549
-1.7160 LETTER W 0.0000
-1.7160 LETTER X -0.0969
-1.7160 LETTER Y 0.0000
-1.7160 LETTER Z 0.0000
-0.3010 LINE </s> -0.3010
-0.3010 LINKEDIN </s> -0.3010
-0.3010 LINUX </s> -0.3010
-0.3010 LISTENING </s> -0.3010
-0.3010 LOCATION </s> -0.3010
-0.3010 LOWER VOLUME -0.1761
-0.3010 M </s> -0.3010
-0.3010 MAELSTROM </s> -0.3010
-0.3010 MAIL </s> -0.3010
-0.3010 MANAGER </s> -0.3010
-0.3010 MAP </s> -0.3010
-0.3010 MARK </s> -0.3010
-0.3010 MASTERMIND </s> -0.3010
-0.3010 MAXIMIZE WINDOW -0.2041
-0.3010 ME ABOUT 0.0000
-0.3010 MENU </s> -0.3010
-0.3010 MERLYN </s> -0.3010
-0.3010 METTA F -0.2430
-0.3010 MIDDLE CLICK -0.1249
-0.3010 MILLION </s> -0.3010
-0.3010 MINUS </s> -0.3010
-0.3010 MOODY BLUES 0.0000
-1.3424 MOUSE CLICK -0.1249
-1.3424 MOUSE DOWN -0.0669
-1.3424 MOUSE EAST 0.0000
-1.3424 MOUSE LEFT -0.1761
-1.3424 MOUSE LOCATION 0.0000
-1.3424 MOUSE NORTH 0.0000
-1.3424 MOUSE ORIGIN 0.0000
-1.3424 MOUSE RIGHT -0.1461
-1.3424 MOUSE SOUTH 0.0000
-1.3424 MOUSE UP -0.0669
-1.3424 MOUSE WEST 0.0000
-0.3010 MULTIPLY BY 0.0000
-0.6990 MUSIC </s> -0.3010
-1.3010 MUSIC NEXT -0.2553
-1.3010 MUSIC PAUSE -0.1249
-1.3010 MUSIC PLAY -0.1761
-1.3010 MUSIC PREV 0.0000
-1.3010 MUSIC SHOW -0.2553
-1.3010 MUSIC SILENCE 0.0000
-0.3010 MUTE SOUND 0.0000
-0.6021 MY DESKTOP 0.0000
-0.6021 MY MUSIC -0.2041
-0.3010 N </s> -0.3010
-0.3010 NAME </s> -0.3010
-0.3010 NET </s> -0.3010
-0.3010 NETFLIX </s> -0.3010
-0.7782 NEW FILE -0.2218
-0.7782 NEW TAB -0.1938
-0.7782 NEW WINDOW -0.2041
-0.3010 NEWS </s> -0.3010
-1.0000 NEXT </s> -0.3010
-1.0000 NEXT TAB -0.1938
-1.0000 NEXT TRACK 0.0000
-1.0000 NEXT WINDOW -0.2041
-1.0000 NEXT WORKSPACE 0.0000
-0.3010 NINE </s> -0.3010
-0.3010 NINETEEN </s> -0.3010
-0.3010 NINETY </s> -0.3010
-0.3010 NORMAL SPEED 0.0000
-0.3010 NORTH </s> -0.3010
-0.3010 NOTE PAD 0.0000
-1.3424 NUMBER </s> -0.3010
-1.3424 NUMBER EIGHT 0.0000
-1.3424 NUMBER FIVE 0.0000
-1.3424 NUMBER FOUR 0.0000
-1.3424 NUMBER NINE 0.0000
-1.3424 NUMBER ONE 0.0000
-1.3424 NUMBER SEVEN 0.0000
-1.3424 NUMBER SIX 0.0000
-1.3424 NUMBER THREE 0.0000
-1.3424 NUMBER TWO 0.0000
-1.3424 NUMBER ZERO 0.0000
-0.3010 O </s> -0.3010
-0.3010 OF THE 0.0000
-0.6021 ON PAGE -0.2218
-0.6021 ON TOP 0.0000
-0.3010 ONE </s> -0.3010
-1.4472 OPEN BROWSER 0.0000
-1.4472 OPEN DESKTOP 0.0000
-1.4472 OPEN DOCUMENTS 0.0000
-1.4472 OPEN DOWNLOADS 0.0000
-1.4472 OPEN FILE -0.1761
-1.4472 OPEN FIREFOX -0.0969
-1.4472 OPEN GOOGLE -0.2430
-1.4472 OPEN MERLYN 0.0000
-1.4472 OPEN MUSIC -0.2041
-1.4472 OPEN PICTURES 0.0000
-1.4472 OPEN RHYTHMBOX 0.0000
-1.4472 OPEN V -0.1963
-1.4472 OPEN VIDEOS 0.0000
-1.4472 OPEN VOLUME -0.1761
-0.3010 OR DA 0.0000
-0.3010 ORG </s> -0.3010
-0.3010 ORIGIN </s> -0.3010
-0.3010 OSCILLOSCOPE </s> -0.3010
-0.3010 OZRIC TENTACLES 0.0000
-0.3010 P </s> -0.3010
-0.3010 PAD </s> -0.3010
-0.7782 PAGE </s> -0.3010
-1.0792 PAGE BACK 0.0000
-1.0792 PAGE DOWN -0.0669
-1.0792 PAGE FORWARD 0.0000
-1.0792 PAGE UP -0.0669
-0.3010 PAINT </s> -0.3010
-0.3010 PALMER </s> -0.3010
-0.3010 PARSONS </s> -0.3010
-0.4771 PAUSE </s> -0.3010
-0.7782 PAUSE PLAY -0.1761
-0.3010 PERIOD </s> -0.3010
-0.3010 PICTURES </s> -0.3010
-0.3010 PINBALL </s> -0.3010
-0.3010 PINK FLOYD 0.0000
-0.3010 PIPE </s> -0.3010
-0.3010 PLACE WINDOW -0.2041
-0.6021 PLAY </s> -0.3010
-0.9031 PLAY FASTER 0.0000
-0.9031 PLAY PAUSE -0.1249
-0.3010 PLUS </s> -0.3010
-0.3010 PREFERENCES </s> -0.3010
-1.0792 PRESS DELETE 0.0000
-1.0792 PRESS END -0.1761
-1.0792 PRESS ENTER 0.0000
-1.0792 PRESS ESCAPE 0.0000
-1.0792 PRESS HOME 0.0000
-1.0792 PRESS TAB -0.1938
-0.3010 PREV </s> -0.3010
-0.7782 PREVIOUS TAB -0.1938
-0.7782 PREVIOUS TRACK 0.0000
-0.7782 PREVIOUS WORKSPACE 0.0000
-0.3010 PROG ROCK 0.0000
-0.3010 PURPLE </s> -0.3010
-0.3010 PYCHESS </s> -0.3010
-0.3010 PYTHON 3 0.0000
-0.3010 Q </s> -0.3010
-0.3010 QUESTION MARK 0.0000
-1.1461 QUIT APPLICATION 0.0000
-1.1461 QUIT BROWSER 0.0000
-1.1461 QUIT CALCULATOR 0.0000
-1.1461 QUIT FILE -0.1761
-1.1461 QUIT FIREFOX -0.0969
-1.1461 QUIT RHYTHMBOX 0.0000
-1.1461 QUIT V -0.1963
-0.3010 R </s> -0.3010
-0.3010 RAISE VOLUME -0.1761
-0.3010 RARE BIRD 0.0000
-0.3010 RECORD MY -0.1761
-0.3010 REDDIT </s> -0.3010
-0.3010 REFRESH PAGE -0.2218
-0.3010 RESTART TRACK 0.0000
-0.6021 RESTORE TAB -0.1938
-0.6021 RESTORE WINDOW -0.2041
-0.3010 REVERSI </s> -0.3010
-0.3010 RHYTHMBOX </s> -0.3010
-0.5229 RIGHT </s> -0.3010
-1.0000 RIGHT ARROW 0.0000
-1.0000 RIGHT CLICK -0.1249
-0.3010 ROCK </s> -0.3010
-0.3010 S </s> -0.3010
-0.3010 SAVE FILE -0.2218
-0.6021 SCREEN </s> -0.3010
-0.6021 SCREEN CAST 0.0000
-0.7782 SEARCH </s> -0.3010
-0.7782 SEARCH FIELD 0.0000
-0.7782 SEARCH MUSIC -0.2041
-0.3010 SEMICOLON </s> -0.3010
-0.3010 SETTINGS </s> -0.3010
-0.3010 SEVEN </s> -0.3010
-0.3010 SEVENTEEN </s> -0.3010
-0.3010 SEVENTY </s> -0.3010
-1.0792 SHIFT C 0.0000
-1.0792 SHIFT E 0.0000
-1.0792 SHIFT N 0.0000
-1.0792 SHIFT O 0.0000
-1.0792 SHIFT V -0.1549
-1.0792 SHIFT W 0.0000
-1.0000 SHOW </s> -0.3010
-1.0000 SHOW BROWSERS 0.0000
-1.0000 SHOW GENERAL 0.0000
-1.0000 SHOW KEYBOARD 0.0000
-1.0000 SHOW WEBSITES 0.0000
-0.3010 SILENCE </s> -0.3010
-0.3010 SIX </s> -0.3010
-0.3010 SIXTEEN </s> -0.3010
-0.3010 SIXTY </s> -0.3010
-0.3010 SIZE </s> -0.3010
-0.3010 SOFTWARE CENTRE 0.0000
-0.3010 SOUND </s> -0.3010
-0.3010 SOUTH </s> -0.3010
-0.6021 SPACE </s> -0.3010
-0.6021 SPACE BAR 0.0000
-0.3010 SPEED </s> -0.3010
-0.3010 SPHINX TOOL 0.0000
-1.4150 SPOTIFY ALAN 0.0000
-1.4150 SPOTIFY BEATLES 0.0000
-1.4150 SPOTIFY DEEP 0.0000
-1.4150 SPOTIFY EMERSON 0.0000
-1.4150 SPOTIFY EVANESCENCE 0.0000
-1.4150 SPOTIFY MOODY 0.0000
-1.4150 SPOTIFY OZRIC 0.0000
-1.4150 SPOTIFY PINK 0.0000
-1.4150 SPOTIFY PROG 0.0000
-1.4150 SPOTIFY RARE 0.0000
-1.4150 SPOTIFY TANGERINE 0.0000
-1.4150 SPOTIFY WAR 0.0000
-1.4150 SPOTIFY YES 0.0000
-0.3010 STAR </s> -0.3010
-0.3010 STOP LISTENING 0.0000
-0.3010 SUBTRACT </s> -0.3010
-0.3010 SUPER KEY 0.0000
-0.3010 SUPERTUXKART </s> -0.3010
-0.3010 SWITCH BACK 0.0000
-0.3010 T </s> -0.3010
-0.6601 TAB </s> -0.3010
-1.5051 TAB EIGHT 0.0000
-1.5051 TAB FIVE 0.0000
-1.5051 TAB FOUR 0.0000
-1.5051 TAB NINE 0.0000
-1.5051 TAB ONE 0.0000
-1.5051 TAB SEVEN 0.0000
-1.5051 TAB SIX 0.0000
-1.5051 TAB THREE 0.0000
-1.5051 TAB TWO 0.0000
-0.3010 TANGERINE DREAM 0.0000
-0.3010 TELL ME 0.0000
-0.3010 TEN </s> -0.3010
-0.3010 TENTACLES </s> -0.3010
-0.3010 TERMINAL </s> -0.3010
-0.3010 THE WORLDS 0.0000
-0.3010 THIRTEEN </s> -0.3010
-0.3010 THIRTY </s> -0.3010
-0.3010 THOUSAND </s> -0.3010
-0.3010 THREE </s> -0.3010
-0.3010 TILDE </s> -0.3010
-0.3010 TIME </s> -0.3010
-0.3010 TIMES </s> -0.3010
-1.0792 TO BROWSER 0.0000
-1.0792 TO FILE -0.1761
-1.0792 TO FIREFOX -0.0969
-1.0792 TO RHYTHMBOX 0.0000
-1.0792 TO V -0.1963
-1.0792 TO VOLUME -0.1761
-0.3010 TOOL </s> -0.3010
-0.6021 TOOLS </s> -0.3010
-0.6021 TOOLS MENU 0.0000
-0.3010 TOP </s> -0.3010
-0.3010 TRACK </s> -0.3010
-0.3010 TRILLION </s> -0.3010
-0.3010 TUXAR </s> -0.3010
-0.3010 TWELVE </s> -0.3010
-0.3010 TWENTY </s> -0.3010
-0.3010 TWITTER </s> -0.3010
-0.3010 TWO </s> -0.3010
-0.3010 U </s> -0.3010
-0.3010 UCK </s> -0.3010
-0.3010 UN MUTE 0.0000
-0.3802 UP </s> -0.3010
-1.0792 UP ARROW 0.0000
-0.5441 V </s> -0.3010
-0.6690 V L -0.1761
-0.3010 VIDEO </s> -0.3010
-0.3010 VIDEOS </s> -0.3010
-0.3010 VIEW MENU 0.0000
-0.3010 VIEWER </s> -0.3010
-0.3010 VIRTUAL BOX 0.0000
-0.6021 VOLUME </s> -0.3010
-0.6021 VOLUME CONTROL -0.2881
-0.3010 W </s> -0.3010
-0.3010 WAR OF 0.0000
-0.3010 WEATHER </s> -0.3010
-0.3010 WEB CAM 0.0000
-0.3010 WEBSITES </s> -0.3010
-0.3010 WEST </s> -0.3010
-0.3010 WIKIPEDIA </s> -0.3010
-0.6990 WINDOW </s> -0.3010
-1.4771 WINDOW DOWN -0.0669
-1.4771 WINDOW EAST 0.0000
-1.4771 WINDOW LEFT -0.1761
-1.4771 WINDOW NORTH 0.0000
-1.4771 WINDOW ORIGIN 0.0000
-1.4771 WINDOW RIGHT -0.1461
-1.4771 WINDOW SOUTH 0.0000
-1.4771 WINDOW UP -0.0669
-1.4771 WINDOW WEST 0.0000
-0.3010 WORKSPACE </s> -0.3010
-0.3010 WORLDS </s> -0.3010
-0.4260 X </s> -0.3010
-0.9031 X DO 0.0000
-0.3010 Y </s> -0.3010
-0.3010 YES </s> -0.3010
-1.4771 YOUTUBE </s> -0.3010
-1.4771 YOUTUBE ALAN 0.0000
-1.4771 YOUTUBE BEATLES 0.0000
-1.4771 YOUTUBE DEEP 0.0000
-1.4771 YOUTUBE EMERSON 0.0000
-1.4771 YOUTUBE EVANESCENCE 0.0000
-1.4771 YOUTUBE MOODY 0.0000
-1.4771 YOUTUBE MY -0.1761
-1.4771 YOUTUBE OZRIC 0.0000
-1.4771 YOUTUBE PINK 0.0000
-1.4771 YOUTUBE PROG 0.0000
-1.4771 YOUTUBE RARE 0.0000
-1.4771 YOUTUBE TANGERINE 0.0000
-1.4771 YOUTUBE WAR 0.0000
-1.4771 YOUTUBE YES 0.0000
-0.3010 Z </s> -0.3010
-0.3010 ZERO </s> -0.3010

\3-grams:
-0.3010 3 CODES </s>
-0.3010 <s> ADD </s>
-0.6021 <s> ADDRESS </s>
-0.6021 <s> ADDRESS FIELD
-0.3010 <s> AI LINUX
-0.3010 <s> ALWAYS ON
-1.4472 <s> AMAZON </s>
-1.4472 <s> AMAZON ALAN
-1.4472 <s> AMAZON BEATLES
-1.4472 <s> AMAZON DEEP
-1.4472 <s> AMAZON EMERSON
-1.4472 <s> AMAZON EVANESCENCE
-1.4472 <s> AMAZON MOODY
-1.4472 <s> AMAZON OZRIC
-1.4472 <s> AMAZON PINK
-1.4472 <s> AMAZON PROG
-1.4472 <s> AMAZON RARE
-1.4472 <s> AMAZON TANGERINE
-1.4472 <s> AMAZON WAR
-1.4472 <s> AMAZON YES
-0.3010 <s> APP LAUNCHER
-0.3010 <s> AUDACITY </s>
-0.3010 <s> BACKGAMMON </s>
-0.3010 <s> BACKSPACE </s>
-0.3010 <s> BILLION </s>
-0.3010 <s> CALCULATOR </s>
-0.3010 <s> CALENDAR </s>
-0.3010 <s> CANCEL </s>
-1.7160 <s> CAPITAL A
-1.7160 <s> CAPITAL B
-1.7160 <s> CAPITAL C
-1.7160 <s> CAPITAL D
-1.7160 <s> CAPITAL E
-1.7160 <s> CAPITAL F
-1.7160 <s> CAPITAL G
-1.7160 <s> CAPITAL H
-1.7160 <s> CAPITAL I
-1.7160 <s> CAPITAL J
-1.7160 <s> CAPITAL K
-1.7160 <s> CAPITAL L
-1.7160 <s> CAPITAL M
-1.7160 <s> CAPITAL N
-1.7160 <s> CAPITAL O
-1.7160 <s> CAPITAL P
-1.7160 <s> CAPITAL Q
-1.7160 <s> CAPITAL R
-1.7160 <s> CAPITAL S
-1.7160 <s> CAPITAL T
-1.7160 <s> CAPITAL U
-1.7160 <s> CAPITAL V
-1.7160 <s> CAPITAL W
-1.7160 <s> CAPITAL X
-1.7160 <s> CAPITAL Y
-1.7160 <s> CAPITAL Z
-0.3010 <s> CHECKERS </s>
-0.3010 <s> CHESS </s>
-0.6021 <s> CLICK AND
-0.6021 <s> CLICK HERE
-0.7782 <s> CLOSE DIALOG
-0.7782 <s> CLOSE TAB
-0.7782 <s> CLOSE WINDOW
-0.3010 <s> COLON </s>
-0.3010 <s> COMMA </s>
-1.8062 <s> CONTROL A
-1.8062 <s> CONTROL B
-1.8062 <s> CONTROL C
-1.8062 <s> CONTROL D
-1.8062 <s> CONTROL E
-1.8062 <s> CONTROL F
-1.8062 <s> CONTROL G
-1.8062 <s> CONTROL H
-1.8062 <s> CONTROL I
-1.8062 <s> CONTROL J
-1.8062 <s> CONTROL K
-1.8062 <s> CONTROL L
-1.8062 <s> CONTROL M
-1.8062 <s> CONTROL N
-1.8062 <s> CONTROL O
-1.8062 <s> CONTROL P
-1.8062 <s> CONTROL Q
-1.8062 <s> CONTROL R
-1.8062 <s> CONTROL S
-1.0280 <s> CONTROL SHIFT
-1.8062 <s> CONTROL T
-1.8062 <s> CONTROL U
-1.8062 <s> CONTROL V
-1.8062 <s> CONTROL W
-1.8062 <s> CONTROL X
-1.8062 <s> CONTROL Y
-1.8062 <s> CONTROL Z
-0.3010 <s> DATE </s>
-0.3010 <s> DELETE </s>
-0.3010 <s> DICTATION </s>
-0.3010 <s> DIVIDE BY
-0.3010 <s> DOCUMENT MENU
-0.9031 <s> DOT CO
-0.9031 <s> DOT COM
-0.9031 <s> DOT NET
-0.9031 <s> DOT ORG
-0.3010 <s> DOUBLE CLICK
-0.3010 <s> DOWN ARROW
-0.3010 <s> DRAUGHTS </s>
-0.3010 <s> DRAW </s>
-0.3010 <s> EBAY </s>
-0.6021 <s> EDIT MENU
-0.6021 <s> EDIT VIDEO
-1.3802 <s> EFF EIGHT
-1.3802 <s> EFF ELEVEN
-1.3802 <s> EFF FIVE
-1.3802 <s> EFF FOUR
-1.3802 <s> EFF NINE
-1.3802 <s> EFF ONE
-1.3802 <s> EFF SEVEN
-1.3802 <s> EFF SIX
-1.3802 <s> EFF TEN
-1.3802 <s> EFF THREE
-1.3802 <s> EFF TWELVE
-1.3802 <s> EFF TWO
-0.3010 <s> EIGHT </s>
-0.3010 <s> EIGHTEEN </s>
-0.3010 <s> EIGHTY </s>
-0.3010 <s> ELEVEN </s>
-0.3010 <s> END LINE
-0.3010 <s> ENTER </s>
-0.3010 <s> EQUALS </s>
-0.3010 <s> ESCAPE </s>
-0.3010 <s> EXIT </s>
-0.3010 <s> FACEBOOK </s>
-0.3010 <s> FIFTEEN </s>
-0.3010 <s> FIFTY </s>
-0.3010 <s> FILE MENU
-0.3010 <s> FILES </s>
-0.3010 <s> FIND ON
-0.3010 <s> FIREFOX PREFERENCES
-0.3010 <s> FIVE </s>
-0.3010 <s> FORMAT MENU
-0.3010 <s> FORTY </s>
-0.3010 <s> FOUR </s>
-0.3010 <s> FOURTEEN </s>
-0.3010 <s> FRACTAL ART
-0.6021 <s> FULL SCREEN
-0.6021 <s> FULL SIZE
-0.3010 <s> GENIE </s>
-0.3010 <s> GNU PAINT
-1.4150 <s> GO </s>
-1.4150 <s> GO BACK
-1.4150 <s> GO DOWN
-1.4150 <s> GO FORWARD
-1.4150 <s> GO LEFT
-1.4150 <s> GO RIGHT
-0.6368 <s> GO TO
-1.4150 <s> GO UP
-0.7782 <s> GOOGLE </s>
-0.7782 <s> GOOGLE MAIL
-0.7782 <s> GOOGLE NEWS
-0.3010 <s> HALF SIZE
-0.6021 <s> HELP </s>
-0.6021 <s> HELP MENU
-0.3010 <s> HERE BE
-0.3010 <s> HOME </s>
-0.3010 <s> HUNDRED </s>
-0.6021 <s> IMAGE EDITOR
-0.6021 <s> IMAGE VIEWER
-0.3010 <s> INSERT MENU
-0.3010 <s> KEEP LISTENING
-0.3010 <s> LEAF PAD
-0.7782 <s> LEFT ARROW
-0.4771 <s> LEFT BUTTON
-1.7160 <s> LETTER A
-1.7160 <s> LETTER B
-1.7160 <s> LETTER C
-1.7160 <s> LETTER D
-1.7160 <s> LETTER E
-1.7160 <s> LETTER F
-1.7160 <s> LETTER G
-1.7160 <s> LETTER H
-1.7160 <s> LETTER I
-1.7160 <s> LETTER J
-1.7160 <s> LETTER K
-1.7160 <s> LETTER L
-1.7160 <s> LETTER M
-1.7160 <s> LETTER N
-1.7160 <s> LETTER O
-1.7160 <s> LETTER P
-1.7160 <s> LETTER Q
-1.7160 <s> LETTER R
-1.7160 <s> LETTER S
-1.7160 <s> LETTER T
-1.7160 <s> LETTER U
-1.7160 <s> LETTER V
-1.7160 <s> LETTER W
-1.7160 <s> LETTER X
-1.7160 <s> LETTER Y
-1.7160 <s> LETTER Z
-0.3010 <s> LINKEDIN </s>
-0.3010 <s> LOWER VOLUME
-0.3010 <s> MAELSTROM </s>
-0.3010 <s> MAP </s>
-0.3010 <s> MASTERMIND </s>
-0.3010 <s> MAXIMIZE WINDOW
-0.3010 <s> MERLYN </s>
-0.3010 <s> METTA F
-0.3010 <s> MIDDLE CLICK
-0.3010 <s> MILLION </s>
-0.3010 <s> MINUS </s>
-1.3424 <s> MOUSE CLICK
-1.3424 <s> MOUSE DOWN
-1.3424 <s> MOUSE EAST
-1.3424 <s> MOUSE LEFT
-1.3424 <s> MOUSE LOCATION
-1.3424 <s> MOUSE NORTH
-1.3424 <s> MOUSE ORIGIN
-1.3424 <s> MOUSE RIGHT
-1.3424 <s> MOUSE SOUTH
-1.3424 <s> MOUSE UP
-1.3424 <s> MOUSE WEST
-0.3010 <s> MULTIPLY BY
-1.1461 <s> MUSIC </s>
-1.1461 <s> MUSIC NEXT
-1.1461 <s> MUSIC PAUSE
-1.1461 <s> MUSIC PLAY
-1.1461 <s> MUSIC PREV
-1.1461 <s> MUSIC SHOW
-1.1461 <s> MUSIC SILENCE
-0.3010 <s> MUTE SOUND
-0.3010 <s> NAME </s>
-0.3010 <s> NETFLIX </s>
-0.7782 <s> NEW FILE
-0.7782 <s> NEW TAB
-0.7782 <s> NEW WINDOW
-0.9031 <s> NEXT TAB
-0.9031 <s> NEXT TRACK
-0.9031 <s> NEXT WINDOW
-0.9031 <s> NEXT WORKSPACE
-0.3010 <s> NINE </s>
-0.3010 <s> NINETEEN </s>
-0.3010 <s> NINETY </s>
-0.3010 <s> NORMAL SPEED
-0.3010 <s> NOTE PAD
-1.3424 <s> NUMBER </s>
-1.3424 <s> NUMBER EIGHT
-1.3424 <s> NUMBER FIVE
-1.3424 <s> NUMBER FOUR
-1.3424 <s> NUMBER NINE
-1.3424 <s> NUMBER ONE
-1.3424 <s> NUMBER SEVEN
-1.3424 <s> NUMBER SIX
-1.3424 <s> NUMBER THREE
-1.3424 <s> NUMBER TWO
-1.3424 <s> NUMBER ZERO
-0.3010 <s> ONE </s>
-1.4472 <s> OPEN BROWSER
-1.4472 <s> OPEN DESKTOP
-1.4472 <s> OPEN DOCUMENTS
-1.4472 <s> OPEN DOWNLOADS
-1.4472 <s> OPEN FILE
-1.4472 <s> OPEN FIREFOX
-1.4472 <s> OPEN GOOGLE
-1.4472 <s> OPEN MERLYN
-1.4472 <s> OPEN MUSIC
-1.4472 <s> OPEN PICTURES
-1.4472 <s> OPEN RHYTHMBOX
-1.4472 <s> OPEN V
-1.4472 <s> OPEN VIDEOS
-1.4472 <s> OPEN VOLUME
-0.3010 <s> OR DA
-0.3010 <s> OSCILLOSCOPE </s>
-0.9031 <s> PAGE BACK
-0.9031 <s> PAGE DOWN
-0.9031 <s> PAGE FORWARD
-0.9031 <s> PAGE UP
-0.3010 <s> PAINT </s>
-0.3010 <s> PAUSE PLAY
-0.3010 <s> PERIOD </s>
-0.3010 <s> PINBALL </s>
-0.3010 <s> PIPE </s>
-0.3010 <s> PLACE WINDOW
-0.6021 <s> PLAY FASTER
-0.6021 <s> PLAY PAUSE
-0.3010 <s> PLUS </s>
-1.0792 <s> PRESS DELETE
-1.0792 <s> PRESS END
-1.0792 <s> PRESS ENTER
-1.0792 <s> PRESS ESCAPE
-1.0792 <s> PRESS HOME
-1.0792 <s> PRESS TAB
-0.7782 <s> PREVIOUS TAB
-0.7782 <s> PREVIOUS TRACK
-0.7782 <s> PREVIOUS WORKSPACE
-0.3010 <s> PYCHESS </s>
-0.3010 <s> PYTHON 3
-0.3010 <s> QUESTION MARK
-1.1461 <s> QUIT APPLICATION
-1.1461 <s> QUIT BROWSER
-1.1461 <s> QUIT CALCULATOR
-1.1461 <s> QUIT FILE
-1.1461 <s> QUIT FIREFOX
-1.1461 <s> QUIT RHYTHMBOX
-1.1461 <s> QUIT V
-0.3010 <s> RAISE VOLUME
-0.3010 <s> RECORD MY
-0.3010 <s> REDDIT </s>
-0.3010 <s> REFRESH PAGE
-0.3010 <s> RESTART TRACK
-0.6021 <s> RESTORE TAB
-0.6021 <s> RESTORE WINDOW
-0.3010 <s> REVERSI </s>
-0.6021 <s> RIGHT ARROW
-0.6021 <s> RIGHT CLICK
-0.3010 <s> SAVE FILE
-0.3010 <s> SCREEN CAST
-0.7782 <s> SEARCH </s>
-0.7782 <s> SEARCH FIELD
-0.7782 <s> SEARCH MUSIC
-0.3010 <s> SEMICOLON </s>
-0.3010 <s> SETTINGS </s>
-0.3010 <s> SEVEN </s>
-0.3010 <s> SEVENTEEN </s>
-0.3010 <s> SEVENTY </s>
-0.9031 <s> SHOW BROWSERS
-0.9031 <s> SHOW GENERAL
-0.9031 <s> SHOW KEYBOARD
-0.9031 <s> SHOW WEBSITES
-0.3010 <s> SIX </s>
-0.3010 <s> SIXTEEN </s>
-0.3010 <s> SIXTY </s>
-0.3010 <s> SOFTWARE CENTRE
-0.6021 <s> SPACE </s>
-0.6021 <s> SPACE BAR
-0.3010 <s> SPHINX TOOL
-1.4150 <s> SPOTIFY ALAN
-1.4150 <s> SPOTIFY BEATLES
-1.4150 <s> SPOTIFY DEEP
-1.4150 <s> SPOTIFY EMERSON
-1.4150 <s> SPOTIFY EVANESCENCE
-1.4150 <s> SPOTIFY MOODY
-1.4150 <s> SPOTIFY OZRIC
-1.4150 <s> SPOTIFY PINK
-1.4150 <s> SPOTIFY PROG
-1.4150 <s> SPOTIFY RARE
-1.4150 <s> SPOTIFY TANGERINE
-1.4150 <s> SPOTIFY WAR
-1.4150 <s> SPOTIFY YES
-0.3010 <s> STAR </s>
-0.3010 <s> STOP LISTENING
-0.3010 <s> SUBTRACT </s>
-0.3010 <s> SUPER KEY
-0.3010 <s> SUPERTUXKART </s>
-0.3010 <s> SWITCH BACK
-1.3010 <s> TAB </s>
-1.3010 <s> TAB EIGHT
-1.3010 <s> TAB FIVE
-1.3010 <s> TAB FOUR
-1.3010 <s> TAB NINE
-1.3010 <s> TAB ONE
-1.3010 <s> TAB SEVEN
-1.3010 <s> TAB SIX
-1.3010 <s> TAB THREE
-1.3010 <s> TAB TWO
-0.3010 <s> TELL ME
-0.3010 <s> TEN </s>
-0.3010 <s> TERMINAL </s>
-0.3010 <s> THIRTEEN </s>
-0.3010 <s> THIRTY </s>
-0.3010 <s> THOUSAND </s>
-0.3010 <s> THREE </s>
-0.3010 <s> TILDE </s>
-0.3010 <s> TIME </s>
-0.3010 <s> TIMES </s>
-0.3010 <s> TOOLS MENU
-0.3010 <s> TRILLION </s>
-0.3010 <s> TUXAR </s>
-0.3010 <s> TWELVE </s>
-0.3010 <s> TWENTY </s>
-0.3010 <s> TWITTER </s>
-0.3010 <s> TWO </s>
-0.3010 <s> UN MUTE
-0.3010 <s> UP ARROW
-0.3010 <s> VIEW MENU
-0.3010 <s> VIRTUAL BOX
-0.3010 <s> WEATHER </s>
-0.3010 <s> WEB CAM
-0.3010 <s> WIKIPEDIA </s>
-1.2553 <s> WINDOW DOWN
-1.2553 <s> WINDOW EAST
-1.2553 <s> WINDOW LEFT
-1.2553 <s> WINDOW NORTH
-1.2553 <s> WINDOW ORIGIN
-1.2553 <s> WINDOW RIGHT
-1.2553 <s> WINDOW SOUTH
-1.2553 <s> WINDOW UP
-1.2553 <s> WINDOW WEST
-0.3010 <s> X DO
-1.4771 <s> YOUTUBE </s>
-1.4771 <s> YOUTUBE ALAN
-1.4771 <s> YOUTUBE BEATLES
-1.4771 <s> YOUTUBE DEEP
-1.4771 <s> YOUTUBE EMERSON
-1.4771 <s> YOUTUBE EVANESCENCE
-1.4771 <s> YOUTUBE MOODY
-1.4771 <s> YOUTUBE MY
-1.4771 <s> YOUTUBE OZRIC
-1.4771 <s> YOUTUBE PINK
-1.4771 <s> YOUTUBE PROG
-1.4771 <s> YOUTUBE RARE
-1.4771 <s> YOUTUBE TANGERINE
-1.4771 <s> YOUTUBE WAR
-1.4771 <s> YOUTUBE YES
-0.3010 <s> ZERO </s>
-0.3010 ABOUT MERLYN </s>
-0.3010 ADDRESS FIELD </s>
-0.3010 AI LINUX </s>
-0.3010 ALAN PARSONS </s>
-0.3010 ALWAYS ON TOP
-0.3010 AMAZON ALAN PARSONS
-0.3010 AMAZON BEATLES </s>
-0.3010 AMAZON DEEP PURPLE
-0.3010 AMAZON EMERSON LAKE
-0.3010 AMAZON EVANESCENCE </s>
-0.3010 AMAZON MOODY BLUES
-0.3010 AMAZON OZRIC TENTACLES
-0.3010 AMAZON PINK FLOYD
-0.3010 AMAZON PROG ROCK
-0.3010 AMAZON RARE BIRD
-0.3010 AMAZON TANGERINE DREAM
-0.3010 AMAZON WAR OF
-0.3010 AMAZON YES </s>
-0.3010 AND HOLD </s>
-0.3010 AND PALMER </s>
-0.3010 APP LAUNCHER </s>
-0.3010 ART GALLERY </s>
-0.3010 BE DRAGONS </s>
-0.3010 BUTTON DOWN </s>
-0.3010 BUTTON UP </s>
-0.3010 CAPITAL A </s>
-0.3010 CAPITAL B </s>
-0.3010 CAPITAL C </s>
-0.3010 CAPITAL D </s>
-0.3010 CAPITAL E </s>
-0.3010 CAPITAL F </s>
-0.3010 CAPITAL G </s>
-0.3010 CAPITAL H </s>
-0.3010 CAPITAL I </s>
-0.3010 CAPITAL J </s>
-0.3010 CAPITAL K </s>
-0.3010 CAPITAL L </s>
-0.3010 CAPITAL M </s>
-0.3010 CAPITAL N </s>
-0.3010 CAPITAL O </s>
-0.3010 CAPITAL P </s>
-0.3010 CAPITAL Q </s>
-0.3010 CAPITAL R </s>
-0.3010 CAPITAL S </s>
-0.3010 CAPITAL T </s>
-0.3010 CAPITAL U </s>
-0.3010 CAPITAL V </s>
-0.3010 CAPITAL W </s>
-0.3010 CAPITAL X </s>
-0.3010 CAPITAL Y </s>
-0.3010 CAPITAL Z </s>
-0.3010 CLICK AND HOLD
-0.3010 CLICK HERE </s>
-0.3010 CLOSE DIALOG </s>
-0.3010 CLOSE TAB </s>
-0.3010 CLOSE WINDOW </s>
-0.3010 CO UCK </s>
-0.3010 CONTROL A </s>
-0.3010 CONTROL B </s>
-0.3010 CONTROL C </s>
-0.3010 CONTROL D </s>
-0.3010 CONTROL E </s>
-0.3010 CONTROL F </s>
-0.3010 CONTROL G </s>
-0.3010 CONTROL H </s>
-0.3010 CONTROL I </s>
-0.3010 CONTROL J </s>
-0.3010 CONTROL K </s>
-0.3010 CONTROL L </s>
-0.3010 CONTROL M </s>
-0.3010 CONTROL N </s>
-0.3010 CONTROL O </s>
-0.3010 CONTROL P </s>
-0.3010 CONTROL Q </s>
-0.3010 CONTROL R </s>
-0.3010 CONTROL S </s>
-1.0792 CONTROL SHIFT C
-1.0792 CONTROL SHIFT E
-1.0792 CONTROL SHIFT N
-1.0792 CONTROL SHIFT O
-1.0792 CONTROL SHIFT V
-1.0792 CONTROL SHIFT W
-0.3010 CONTROL T </s>
-0.3010 CONTROL U </s>
-0.3010 CONTROL V </s>
-0.3010 CONTROL W </s>
-0.3010 CONTROL X </s>
-0.3010 CONTROL Y </s>
-0.3010 CONTROL Z </s>
-0.3010 DA CITY </s>
-0.3010 DEEP PURPLE </s>
-0.3010 DIVIDE BY </s>
-0.3010 DO TOOLS </s>
-0.3010 DOCUMENT MENU </s>
-0.3010 DOT CO UCK
-0.3010 DOT COM </s>
-0.3010 DOT NET </s>
-0.3010 DOT ORG </s>
-0.3010 DOUBLE CLICK </s>
-0.3010 DOWN ARROW </s>
-0.3010 EDIT MENU </s>
-0.3010 EDIT VIDEO </s>
-0.3010 EFF EIGHT </s>
-0.3010 EFF ELEVEN </s>
-0.3010 EFF FIVE </s>
-0.3010 EFF FOUR </s>
-0.3010 EFF NINE </s>
-0.3010 EFF ONE </s>
-0.3010 EFF SEVEN </s>
-0.3010 EFF SIX </s>
-0.3010 EFF TEN </s>
-0.3010 EFF THREE </s>
-0.3010 EFF TWELVE </s>
-0.3010 EFF TWO </s>
-0.3010 EMERSON LAKE AND
-0.3010 END LINE </s>
-0.3010 F TWO </s>
-0.3010 FILE MANAGER </s>
-0.3010 FILE MENU </s>
-0.3010 FIND ON PAGE
-0.3010 FIREFOX PREFERENCES </s>
-0.3010 FORMAT MENU </s>
-0.3010 FRACTAL ART GALLERY
-0.3010 FULL SCREEN </s>
-0.3010 FULL SIZE </s>
-0.3010 GNU PAINT </s>
-0.3010 GO BACK </s>
-0.3010 GO DOWN </s>
-0.3010 GO FORWARD </s>
-0.3010 GO LEFT </s>
-0.3010 GO RIGHT </s>
-1.0792 GO TO BROWSER
-1.0792 GO TO FILE
-1.0792 GO TO FIREFOX
-1.0792 GO TO RHYTHMBOX
-1.0792 GO TO V
-1.0792 GO TO VOLUME
-0.3010 GO UP </s>
-0.3010 GOOGLE CHROME </s>
-0.3010 GOOGLE MAIL </s>
-0.3010 GOOGLE NEWS </s>
-0.3010 HALF SIZE </s>
-0.3010 HELP MENU </s>
-0.3010 HERE BE DRAGONS
-0.3010 IMAGE EDITOR </s>
-0.3010 IMAGE VIEWER </s>
-0.3010 INSERT MENU </s>
-0.3010 KEEP LISTENING </s>
-0.3010 L C </s>
-0.3010 LAKE AND PALMER
-0.3010 LEAF PAD </s>
-0.3010 LEFT ARROW </s>
-0.6021 LEFT BUTTON DOWN
-0.6021 LEFT BUTTON UP
-0.3010 LETTER A </s>
-0.3010 LETTER B </s>
-0.3010 LETTER C </s>
-0.3010 LETTER D </s>
-0.3010 LETTER E </s>
-0.3010 LETTER F </s>
-0.3010 LETTER G </s>
-0.3010 LETTER H </s>
-0.3010 LETTER I </s>
-0.3010 LETTER J </s>
-0.3010 LETTER K </s>
-0.3010 LETTER L </s>
-0.3010 LETTER M </s>
-0.3010 LETTER N </s>
-0.3010 LETTER O </s>
-0.3010 LETTER P </s>
-0.3010 LETTER Q </s>
-0.3010 LETTER R </s>
-0.3010 LETTER S </s>
-0.3010 LETTER T </s>
-0.3010 LETTER U </s>
-0.3010 LETTER V </s>
-0.3010 LETTER W </s>
-0.3010 LETTER X </s>
-0.3010 LETTER Y </s>
-0.3010 LETTER Z </s>
-0.3010 LOWER VOLUME </s>
-0.3010 MAXIMIZE WINDOW </s>
-0.3010 ME ABOUT MERLYN
-0.3010 METTA F TWO
-0.3010 MIDDLE CLICK </s>
-0.3010 MOODY BLUES </s>
-0.3010 MOUSE CLICK </s>
-0.3010 MOUSE DOWN </s>
-0.3010 MOUSE EAST </s>
-0.3010 MOUSE LEFT </s>
-0.3010 MOUSE LOCATION </s>
-0.3010 MOUSE NORTH </s>
-0.3010 MOUSE ORIGIN </s>
-0.3010 MOUSE RIGHT </s>
-0.3010 MOUSE SOUTH </s>
-0.3010 MOUSE UP </s>
-0.3010 MOUSE WEST </s>
-0.3010 MULTIPLY BY </s>
-0.3010 MUSIC NEXT </s>
-0.3010 MUSIC PAUSE </s>
-0.3010 MUSIC PLAY </s>
-0.3010 MUSIC PREV </s>
-0.3010 MUSIC SHOW </s>
-0.3010 MUSIC SILENCE </s>
-0.3010 MUTE SOUND </s>
-0.3010 MY DESKTOP </s>
-0.3010 MY MUSIC </s>
-0.3010 NEW FILE </s>
-0.3010 NEW TAB </s>
-0.3010 NEW WINDOW </s>
-0.3010 NEXT TAB </s>
-0.3010 NEXT TRACK </s>
-0.3010 NEXT WINDOW </s>
-0.3010 NEXT WORKSPACE </s>
-0.3010 NORMAL SPEED </s>
-0.3010 NOTE PAD </s>
-0.3010 NUMBER EIGHT </s>
-0.3010 NUMBER FIVE </s>
-0.3010 NUMBER FOUR </s>
-0.3010 NUMBER NINE </s>
-0.3010 NUMBER ONE </s>
-0.3010 NUMBER SEVEN </s>
-0.3010 NUMBER SIX </s>
-0.3010 NUMBER THREE </s>
-0.3010 NUMBER TWO </s>
-0.3010 NUMBER ZERO </s>
-0.3010 OF THE WORLDS
-0.3010 ON PAGE </s>
-0.3010 ON TOP </s>
-0.3010 OPEN BROWSER </s>
-0.3010 OPEN DESKTOP </s>
-0.3010 OPEN DOCUMENTS </s>
-0.3010 OPEN DOWNLOADS </s>
-0.3010 OPEN FILE MANAGER
-0.3010 OPEN FIREFOX </s>
-0.3010 OPEN GOOGLE CHROME
-0.3010 OPEN MERLYN </s>
-0.3010 OPEN MUSIC </s>
-0.3010 OPEN PICTURES </s>
-0.3010 OPEN RHYTHMBOX </s>
-0.3010 OPEN V L
-0.3010 OPEN VIDEOS </s>
-0.3010 OPEN VOLUME CONTROL
-0.3010 OR DA CITY
-0.3010 OZRIC TENTACLES </s>
-0.3010 PAGE BACK </s>
-0.3010 PAGE DOWN </s>
-0.3010 PAGE FORWARD </s>
-0.3010 PAGE UP </s>
-0.3010 PAUSE PLAY </s>
-0.3010 PINK FLOYD </s>
-0.3010 PLACE WINDOW </s>
-0.3010 PLAY FASTER </s>
-0.3010 PLAY PAUSE </s>
-0.3010 PRESS DELETE </s>
-0.3010 PRESS END </s>
-0.3010 PRESS ENTER </s>
-0.3010 PRESS ESCAPE </s>
-0.3010 PRESS HOME </s>
-0.3010 PRESS TAB </s>
-0.3010 PREVIOUS TAB </s>
-0.3010 PREVIOUS TRACK </s>
-0.3010 PREVIOUS WORKSPACE </s>
-0.3010 PROG ROCK </s>
-0.3010 PYTHON 3 CODES
-0.3010 QUESTION MARK </s>
-0.3010 QUIT APPLICATION </s>
-0.3010 QUIT BROWSER </s>
-0.3010 QUIT CALCULATOR </s>
-0.3010 QUIT FILE MANAGER
-0.3010 QUIT FIREFOX </s>
-0.3010 QUIT RHYTHMBOX </s>
-0.3010 QUIT V L
-0.3010 RAISE VOLUME </s>
-0.3010 RARE BIRD </s>
-0.3010 RECORD MY DESKTOP
-0.3010 REFRESH PAGE </s>
-0.3010 RESTART TRACK </s>
-0.3010 RESTORE TAB </s>
-0.3010 RESTORE WINDOW </s>
-0.3010 RIGHT ARROW </s>
-0.3010 RIGHT CLICK </s>
-0.3010 SAVE FILE </s>
-0.3010 SCREEN CAST </s>
-0.3010 SEARCH FIELD </s>
-0.3010 SEARCH MUSIC </s>
-0.3010 SHIFT C </s>
-0.3010 SHIFT E </s>
-0.3010 SHIFT N </s>
-0.3010 SHIFT O </s>
-0.3010 SHIFT V </s>
-0.3010 SHIFT W </s>
-0.3010 SHOW BROWSERS </s>
-0.3010 SHOW GENERAL </s>
-0.3010 SHOW KEYBOARD </s>
-0.3010 SHOW WEBSITES </s>
-0.3010 SOFTWARE CENTRE </s>
-0.3010 SPACE BAR </s>
-0.3010 SPHINX TOOL </s>
-0.3010 SPOTIFY ALAN PARSONS
-0.3010 SPOTIFY BEATLES </s>
-0.3010 SPOTIFY DEEP PURPLE
-0.3010 SPOTIFY EMERSON LAKE
-0.3010 SPOTIFY EVANESCENCE </s>
-0.3010 SPOTIFY MOODY BLUES
-0.3010 SPOTIFY OZRIC TENTACLES
-0.3010 SPOTIFY PINK FLOYD
-0.3010 SPOTIFY PROG ROCK
-0.3010 SPOTIFY RARE BIRD
-0.3010 SPOTIFY TANGERINE DREAM
-0.3010 SPOTIFY WAR OF
-0.3010 SPOTIFY YES </s>
-0.3010 STOP LISTENING </s>
-0.3010 SUPER KEY </s>
-0.3010 SWITCH BACK </s>
-0.3010 TAB EIGHT </s>
-0.3010 TAB FIVE </s>
-0.3010 TAB FOUR </s>
-0.3010 TAB NINE </s>
-0.3010 TAB ONE </s>
-0.3010 TAB SEVEN </s>
-0.3010 TAB SIX </s>
-0.3010 TAB THREE </s>
-0.3010 TAB TWO </s>
-0.3010 TANGERINE DREAM </s>
-0.3010 TELL ME ABOUT
-0.3010 THE WORLDS </s>
-0.3010 TO BROWSER </s>
-0.3010 TO FILE MANAGER
-0.3010 TO FIREFOX </s>
-0.3010 TO RHYTHMBOX </s>
-0.3010 TO V L
-0.3010 TO VOLUME CONTROL
-0.3010 TOOLS MENU </s>
-0.3010 UN MUTE SOUND
-0.3010 UP ARROW </s>
-0.3010 V L C
-0.3010 VIEW MENU </s>
-0.3010 VIRTUAL BOX </s>
-0.3010 VOLUME CONTROL </s>
-0.3010 WAR OF THE
-0.3010 WEB CAM </s>
-0.3010 WINDOW DOWN </s>
-0.3010 WINDOW EAST </s>
-0.3010 WINDOW LEFT </s>
-0.3010 WINDOW NORTH </s>
-0.3010 WINDOW ORIGIN </s>
-0.3010 WINDOW RIGHT </s>
-0.3010 WINDOW SOUTH </s>
-0.3010 WINDOW UP </s>
-0.3010 WINDOW WEST </s>
-0.3010 X DO TOOLS
-0.3010 YOUTUBE ALAN PARSONS
-0.3010 YOUTUBE BEATLES </s>
-0.3010 YOUTUBE DEEP PURPLE
-0.3010 YOUTUBE EMERSON LAKE
-0.3010 YOUTUBE EVANESCENCE </s>
-0.3010 YOUTUBE MOODY BLUES
-0.3010 YOUTUBE MY MUSIC
-0.3010 YOUTUBE OZRIC TENTACLES
-0.3010 YOUTUBE PINK FLOYD
-0.3010 YOUTUBE PROG ROCK
-0.3010 YOUTUBE RARE BIRD
-0.3010 YOUTUBE TANGERINE DREAM
-0.3010 YOUTUBE WAR OF
-0.3010 YOUTUBE YES </s>

\end\
